|--- 条件： ZATnorth <= 18.792
|   |--- 条件： Tmix <= 16.813
|   |   |--- 条件： Tmix <= 16.125
|   |   |   |--- 预测值： [0.043]
|   |   |--- 条件： Tmix >  16.125
|   |   |   |--- 预测值： [0.200]
|   |--- 条件： Tmix >  16.813
|   |   |--- 条件： Tout_1h <= 22.175
|   |   |   |--- 预测值： [0.435]
|   |   |--- 条件： Tout_1h >  22.175
|   |   |   |--- 预测值： [0.641]
|--- 条件： ZATnorth >  18.792
|   |--- 条件： SAT <= 18.234
|   |   |--- 条件： SAT <= 17.529
|   |   |   |--- 预测值： [0.714]
|   |   |--- 条件： SAT >  17.529
|   |   |   |--- 条件： ZATwest <= 19.981
|   |   |   |   |--- 预测值： [0.800]
|   |   |   |--- 条件： ZATwest >  19.981
|   |   |   |   |--- 预测值： [0.930]
|   |--- 条件： SAT >  18.234
|   |   |--- 条件： ZATnorth <= 19.599
|   |   |   |--- 预测值： [0.913]
|   |   |--- 条件： ZATnorth >  19.599
|   |   |   |--- 预测值： [1.000]
