|--- 条件： SAT <= 13.700
|   |--- 条件： Tout_4h <= 23.000
|   |   |--- 条件： Tout_2h <= 19.000
|   |   |   |--- 预测值： [11.250]
|   |   |--- 条件： Tout_2h >  19.000
|   |   |   |--- 预测值： [11.000]
|   |--- 条件： Tout_4h >  23.000
|   |   |--- 条件： ZATeast <= 24.000
|   |   |   |--- 条件： Tout_2h <= 21.000
|   |   |   |   |--- 预测值： [12.500]
|   |   |   |--- 条件： Tout_2h >  21.000
|   |   |   |   |--- 预测值： [13.000]
|   |   |--- 条件： ZATeast >  24.000
|   |   |   |--- 预测值： [12.000]
|--- 条件： SAT >  13.700
|   |--- 条件： ZATeast <= 23.997
|   |   |--- 预测值： [13.995]
|   |--- 条件： ZATeast >  23.997
|   |   |--- 预测值： [12.000]
